{
    "children_left": [
        1,
        -1,
        3,
        4,
        5,
        -1,
        -1,
        8,
        -1,
        10,
        -1,
        -1,
        13,
        14,
        -1,
        -1,
        -1
    ],
    "children_right": [
        2,
        -1,
        12,
        7,
        6,
        -1,
        -1,
        9,
        -1,
        11,
        -1,
        -1,
        16,
        15,
        -1,
        -1,
        -1
    ],
    "threshold": [
        2.449999988079071,
        -2.0,
        1.75,
        4.950000047683716,
        1.6500000357627869,
        -2.0,
        -2.0,
        1.550000011920929,
        -2.0,
        5.450000047683716,
        -2.0,
        -2.0,
        4.8500001430511475,
        5.950000047683716,
        -2.0,
        -2.0,
        -2.0
    ],
    "feature": [
        2,
        -2,
        3,
        2,
        3,
        -2,
        -2,
        3,
        -2,
        2,
        -2,
        -2,
        2,
        0,
        -2,
        -2,
        -2
    ],
    "classes_": [
        0,
        1,
        2
    ],
    "value": [
        [
            50.0,
            50.0,
            50.0
        ],
        [
            50.0,
            0.0,
            0.0
        ],
        [
            0.0,
            50.0,
            50.0
        ],
        [
            0.0,
            49.0,
            5.0
        ],
        [
            0.0,
            47.0,
            1.0
        ],
        [
            0.0,
            47.0,
            0.0
        ],
        [
            0.0,
            0.0,
            1.0
        ],
        [
            0.0,
            2.0,
            4.0
        ],
        [
            0.0,
            0.0,
            3.0
        ],
        [
            0.0,
            2.0,
            1.0
        ],
        [
            0.0,
            2.0,
            0.0
        ],
        [
            0.0,
            0.0,
            1.0
        ],
        [
            0.0,
            1.0,
            45.0
        ],
        [
            0.0,
            1.0,
            2.0
        ],
        [
            0.0,
            1.0,
            0.0
        ],
        [
            0.0,
            0.0,
            2.0
        ],
        [
            0.0,
            0.0,
            43.0
        ]
    ],
    "__meta__": {
        "__pyversion": "3.6.5 (default, Mar 31 2018, 19:45:04) [GCC]",
        "__sklearn_version": "0.21.2",
        "__classifier": "DecisionTreeClassifier",
        "__author": "alex",
        "__dt": "2019-07-12T23:18:47.172481"
    }
}
